Cufon.registerFont({"w":557,"face":{"font-family":"Complete in Him","font-weight":"400","font-stretch":"normal","units-per-em":"2048","panose-1":"2 0 5 0 0 0 0 0 0 0","ascent":"1638","descent":"-410","x-height":"12","bbox":"-200 -1507 1677 649","underline-thickness":"150","underline-position":"-292","unicode-range":"U+0020-U+2122"},"glyphs":{" ":{"w":638},"\u00a0":{"w":638},"!":{"d":"199,-1150v60,23,90,93,90,210r0,270r15,315v-20,60,-40,90,-60,90v-90,0,-135,-60,-135,-180r0,-255r-15,-405v37,-30,72,-45,105,-45xm94,-25v69,-4,117,11,135,60r0,75r-75,60v-37,0,-77,-30,-120,-90v0,-54,20,-89,60,-105","w":351},"\"":{"d":"222,-1068v27,0,52,25,75,75v-87,132,-76,190,-75,360r-15,0v-90,-30,-135,-100,-135,-210v0,-153,80,-225,150,-225xm597,-1038v50,14,75,49,75,105v-78,39,-128,79,-150,120r0,120r30,45v2,39,0,61,-45,60v-105,-43,-143,-94,-135,-210v45,-160,120,-240,225,-240","w":672},"#":{"d":"923,-1215r75,60v-20,71,-30,171,-30,300r15,15r300,0r75,15r0,30v0,25,-130,60,-390,105r0,225r105,30r180,0r30,60v-13,60,-88,90,-225,90r-75,0r0,120r15,60v-20,63,-45,98,-75,105r-45,0v-50,0,-75,-90,-75,-270v-77,-2,-141,9,-210,15r0,255v0,56,-25,91,-75,105v-60,0,-90,-100,-90,-300r-30,-30r-315,15r-60,-75r0,-30v0,-50,75,-80,225,-90r165,0v3,-78,-4,-146,-15,-210v-71,-1,-130,10,-195,15r-45,-60r0,-30v30,-60,105,-90,225,-90r-15,-225v25,-60,60,-90,105,-90v70,0,105,100,105,300r75,0r60,15r75,-30r0,-120v0,-190,45,-285,135,-285xm578,-585v5,110,15,165,30,165r165,15r15,-15r0,-240v-140,0,-210,25,-210,75","w":1336},"$":{"d":"514,-1277v50,13,75,63,75,150r105,-15v60,21,90,61,90,120r-210,60v-33,63,-31,204,-30,315r105,0r15,-15v140,30,210,70,210,120v4,225,-116,382,-360,525v0,240,-25,360,-75,360r-30,0v-45,-19,-70,-39,-75,-60r15,-300v-178,3,-290,-46,-285,-150v7,-80,42,-120,105,-120v-3,84,25,137,90,135r90,0v18,-12,22,-38,30,-60v-10,-51,-15,-141,-15,-270v-186,-24,-275,-87,-270,-225v0,-21,100,-121,300,-300r0,-150v0,-80,40,-120,120,-120xm244,-662r45,45r90,0r0,-180r-30,0xm529,-512r0,240r15,60v118,-73,171,-158,165,-300r-60,-15","w":898},"%":{"d":"916,-1258v25,-5,45,-15,75,-15r60,60r0,15v0,27,-79,116,-180,300v-189,344,-320,750,-450,1185r-60,15v-19,0,-49,-25,-90,-75v313,-896,528,-1391,645,-1485xm391,-1168r30,0v24,0,64,60,120,180v22,0,47,55,75,165v-73,230,-168,345,-285,345v-149,-40,-217,-141,-210,-315v40,-250,130,-375,270,-375xm271,-733v0,70,20,105,60,105v100,-67,150,-122,150,-165v0,-47,-40,-92,-120,-135r-30,0v-33,0,-53,65,-60,195xm826,-388v151,-5,222,84,240,270v-37,190,-127,285,-270,285v-120,-39,-180,-119,-180,-240v0,-144,70,-249,210,-315xm766,-28r15,15r60,0v60,-36,90,-96,90,-180v-8,-7,-12,-15,-30,-15v-90,0,-135,60,-135,180","w":1098},"&":{"d":"367,-1012v33,-82,30,-96,105,-90v50,30,75,65,75,105r-15,210r15,285r15,0v127,-33,277,-148,450,-345v70,24,105,44,105,60r0,15v0,62,-146,199,-450,390v-56,35,-90,58,-90,90v50,165,75,285,75,360v-24,60,-54,90,-90,90v-90,0,-112,-108,-105,-225r15,-15r-45,-180r-120,15v-180,0,-270,-85,-270,-255v64,-90,145,-149,240,-135r105,15r0,-75xm232,-457r0,45r90,0r0,-45r-90,0","w":1132},"'":{"d":"180,-1128v77,-8,110,101,105,240v-43,290,-123,435,-240,435v-9,-21,-30,-30,-30,-60r105,-360r-15,-195v5,-21,30,-41,75,-60","w":346},"(":{"d":"522,-1363r75,0r60,60r0,45v-260,253,-390,608,-390,1065v0,126,110,231,330,315r15,15v30,0,45,10,45,30v-40,60,-85,90,-135,90v-147,0,-287,-120,-420,-360r0,-150v0,-374,120,-729,360,-1065","w":758},")":{"d":"135,-1285v16,-55,54,-78,120,-75v220,207,330,457,330,750v0,331,-125,616,-375,855v-75,5,-122,-18,-120,-90v195,-195,295,-425,300,-691v4,-266,-46,-471,-150,-614v-70,-29,-105,-74,-105,-135","w":626},"*":{"d":"1272,-1083v270,0,405,95,405,285v0,172,-195,372,-585,600v-70,70,-108,115,-105,135r15,105v-65,100,-135,150,-210,150r-60,-90r30,-165v-29,-85,-204,-200,-525,-345v-130,-154,-195,-254,-195,-300v78,-210,203,-315,375,-315v130,0,265,70,405,210v162,-160,272,-240,330,-240xm822,-543r-195,-195v-95,-78,-153,-96,-285,-90v-40,20,-70,50,-90,90v0,117,160,252,480,405r120,105v440,-273,660,-468,660,-585r0,-30v-27,-74,-132,-79,-240,-75v-135,0,-250,110,-345,330","w":1713},"+":{"d":"507,-791v-1,-71,44,-96,120,-90v20,0,40,30,60,90r-15,210r0,45v0,17,108,20,324,7r-4,109v0,25,-102,51,-305,79r0,75v0,190,-20,285,-60,285r-30,0v-72,-28,-96,-160,-90,-300r-45,-45v-102,30,-197,45,-285,45r-60,-75r0,-30v0,-30,45,-55,135,-75r150,15v70,0,105,-30,105,-90r0,-255","w":1014},",":{"d":"173,-231v31,-69,41,-81,120,-75v64,39,93,101,90,195v0,207,-60,357,-180,450v-62,1,-99,8,-105,-60v70,-115,129,-238,105,-360"},"-":{"d":"120,-512v118,-3,227,3,330,15r60,-15v100,17,150,37,150,60r0,30v0,60,-145,90,-435,90v-48,-3,-86,4,-120,15v-33,0,-68,-35,-105,-105v21,-60,61,-90,120,-90","w":670},"\u00ad":{"d":"120,-512v118,-3,227,3,330,15r60,-15v100,17,150,37,150,60r0,30v0,60,-145,90,-435,90v-48,-3,-86,4,-120,15v-33,0,-68,-35,-105,-105v21,-60,61,-90,120,-90","w":670},".":{"d":"267,-217v57,0,92,40,105,120v-25,70,-60,105,-105,105v-41,-14,-71,-39,-90,-75v-3,-68,26,-103,90,-150"},"\/":{"d":"610,-895v65,62,-16,213,-243,452r-317,443r-21,1r-65,-62v-29,-28,134,-273,490,-735v61,-93,110,-123,146,-88","w":569},"0":{"d":"210,-825r30,0v220,40,330,140,330,300v0,355,-171,525,-330,525v-114,0,-194,-155,-240,-465v31,-240,101,-360,210,-360xm150,-525r0,165v13,140,58,210,135,210v124,-80,174,-219,165,-420v-60,-80,-135,-120,-225,-120v-35,0,-60,55,-75,165","w":604},"1":{"d":"45,-1095v101,0,139,158,180,465v41,306,92,431,90,555r-15,75r-75,0v-55,0,-115,-265,-180,-795v-34,-82,-47,-158,-45,-255","w":343},"2":{"d":"375,-1005v162,0,240,83,240,180v0,85,-75,245,-225,480r0,30v243,-90,388,-135,435,-135v55,0,64,66,60,135v0,19,-155,84,-465,195v-174,105,-198,129,-375,120v-25,0,-40,-20,-45,-60v290,-309,435,-539,435,-690r0,-90r-90,0v-52,0,-127,50,-225,150v-52,0,-82,-15,-90,-45r0,-60v108,-140,223,-210,345,-210","w":898},"3":{"d":"413,-1101v82,39,96,29,90,105v0,73,-20,153,-60,240v184,-9,326,18,390,135r0,15v0,249,-220,474,-660,675r-60,15v-26,0,-56,-30,-90,-90v0,-50,90,-85,270,-105v250,-187,375,-327,375,-420r0,-15r-45,-45v-181,-8,-259,29,-435,135v-60,-21,-90,-61,-90,-120v135,-110,207,-195,210,-315r-30,0v-71,70,-121,105,-150,105v-40,0,-60,-25,-60,-75r-15,0v91,-160,211,-240,360,-240","w":860},"4":{"d":"465,-1074v90,0,135,210,135,630r15,240r0,165v0,90,-30,145,-90,165v-43,0,-78,-35,-105,-105r15,-75r0,-225r-150,15v-170,0,-255,-45,-255,-135r15,-135r-15,-225v15,-40,30,-60,45,-60r75,0v50,0,75,115,75,345r15,15r165,0v20,0,30,-15,30,-45r-45,-510v5,-21,30,-41,75,-60","w":657},"5":{"d":"353,-956v78,-12,145,-35,240,-30r60,60r0,45v-16,40,-51,60,-105,60r-255,0r-45,45r0,75r30,30r165,-45v202,-3,326,71,375,225r0,90v0,155,-135,310,-405,465r-180,45v-45,-13,-80,-53,-105,-120r30,-60v45,5,84,16,135,15v240,-105,360,-240,360,-405v3,-37,-64,-78,-165,-90v-72,0,-157,40,-255,120r-75,0v-44,0,-90,-99,-90,-300v0,-161,68,-240,150,-240","w":853},"6":{"d":"218,-1109v33,0,68,35,105,105v-68,185,-95,364,-90,585v30,-53,100,-108,210,-165v125,0,195,95,210,285v0,190,-95,310,-285,360r-120,0v0,29,-20,54,-60,75v-49,0,-84,-35,-105,-105r15,-150r-45,-315v41,-450,96,-675,165,-675xm308,-119r90,0v43,0,78,-50,105,-150r0,-105v-7,-8,-18,-12,-15,-30v-120,87,-180,182,-180,285","w":687},"7":{"d":"516,-974v75,34,109,74,105,150v0,620,-40,930,-120,930v-79,6,-68,-10,-120,-90v48,-293,64,-523,60,-810r-315,15v-80,-12,-120,-52,-120,-120r60,-60r180,15r90,0v120,0,180,-10,180,-30","w":642},"8":{"d":"360,-1050v160,65,240,150,240,255r-60,270v84,67,123,130,120,225v-62,260,-187,390,-375,390v-110,0,-170,-90,-180,-270r45,-180v-80,-105,-120,-220,-120,-345v0,-195,110,-310,330,-345xm195,-765r0,195r60,60r15,0v150,-72,225,-167,225,-285v0,-53,-50,-83,-150,-90xm666,-780xm270,-180r0,75r30,30v162,-54,223,-112,210,-270r-45,-45v-98,0,-163,70,-195,210","w":694},"9":{"d":"513,-1146r150,15r0,-15v30,0,70,40,120,120v-20,119,-40,464,-60,1035r15,135v-45,40,-80,60,-105,60v-60,-21,-90,-61,-90,-120v-4,-241,7,-370,30,-690r-45,0v-64,120,-164,180,-300,180v-140,-54,-210,-149,-210,-285v0,-119,135,-259,405,-420xm183,-621r45,30r90,0v56,-20,146,-105,270,-255v-1,-44,-11,-79,-15,-120r-90,0v-205,80,-304,180,-300,345xm48,-462","w":800},":":{"d":"143,-624v-1,-53,46,-59,105,-60r75,75v1,65,-43,94,-120,90v-40,-16,-60,-51,-60,-105xm248,-354r45,0r75,75r0,45r-45,45r-75,0r-45,-45r0,-75"},";":{"d":"327,-827v80,-7,70,12,105,105r-60,90v-45,0,-85,-35,-120,-105v14,-41,39,-71,75,-90xm267,-362v60,0,95,80,105,240v8,230,-58,388,-210,420r-45,-45r0,-45v65,-90,94,-178,90,-300r-30,-180v14,-60,44,-90,90,-90"},"\u037e":{"d":"327,-827v80,-7,70,12,105,105r-60,90v-45,0,-85,-35,-120,-105v14,-41,39,-71,75,-90xm267,-362v60,0,95,80,105,240v8,230,-58,388,-210,420r-45,-45r0,-45v65,-90,94,-178,90,-300r-30,-180v14,-60,44,-90,90,-90"},"<":{"d":"552,-956r15,0r0,45v0,33,-90,183,-270,450v116,138,256,205,434,247r45,60r0,60r-60,45v-413,-205,-627,-322,-644,-352r0,-75v122,-84,237,-214,345,-390v57,-103,102,-133,135,-90","w":811},"=":{"d":"480,-570v65,-1,99,44,90,120v-6,55,-108,45,-180,45r-285,15v-75,-15,-114,-50,-105,-120v8,-58,120,-44,195,-45xm120,-195v118,-3,227,3,330,15r60,-15v100,17,150,37,150,60r0,30v0,60,-145,90,-435,90v-48,-3,-86,4,-120,15v-33,0,-68,-35,-105,-105v21,-60,61,-90,120,-90","w":694},">":{"d":"241,-948v87,0,162,75,225,225r240,225r0,60r-450,465r-45,0v-40,-16,-60,-51,-60,-105v233,-219,353,-344,360,-375r0,-15v-203,-203,-308,-338,-315,-405v13,-50,28,-75,45,-75","w":743},"?":{"d":"64,-1135v77,-162,216,-234,435,-225v197,-4,318,116,345,315v-77,187,-257,347,-540,480r0,15r75,315r-75,60v-100,0,-150,-100,-150,-300r-75,-165v14,-41,39,-71,75,-90v63,-2,107,12,150,45v250,-181,375,-316,375,-405v-54,-88,-124,-125,-240,-120v-81,0,-171,45,-270,135r-45,0xm214,-25v103,-9,95,14,135,135r-75,60v-85,-12,-124,-53,-120,-135","w":748},"@":{"d":"637,-1289v198,0,373,175,525,525r0,90v-58,302,-133,497,-225,585v-81,156,-251,271,-510,345v-187,0,-312,-155,-375,-465v13,-160,28,-245,45,-255v1,-110,27,-193,60,-270r-15,0r165,-300v29,-70,67,-118,113,-144v46,-27,118,-64,217,-111xm202,-344r0,105v27,230,97,345,210,345v147,0,287,-105,420,-315r0,-15r-120,-45v-85,80,-155,120,-210,120v-114,-43,-169,-123,-165,-255v0,-175,95,-350,285,-525v73,-3,140,0,150,60r-15,75r45,120r-15,75v7,140,32,210,75,210v65,0,125,-95,180,-285v-69,-290,-199,-435,-390,-435r-75,0v-143,73,-258,268,-345,585xm592,-659v-91,72,-95,169,-90,315r45,0v36,-19,61,-49,75,-90r-15,-225r-15,0","w":1200},"A":{"d":"307,-1185v50,0,90,65,120,195v81,73,166,228,255,465v30,0,45,60,45,180r120,330v2,27,-20,30,-30,45r-45,0v-41,0,-106,-130,-195,-390v-215,11,-345,66,-345,150v0,181,-39,270,-75,270v-79,7,-75,-12,-105,-105v113,-713,188,-1088,225,-1125r30,0r0,-15xm337,-840r-45,375r225,-30r0,-30v-67,-210,-117,-315,-150,-315r-30,0","w":877},"B":{"d":"430,-1008v83,0,128,50,135,150r-45,180r15,15r75,-15v234,30,369,105,405,225r15,105v0,118,-135,253,-405,405r-270,60v-183,0,-278,-120,-285,-360r-30,-585v0,-65,130,-125,390,-180xm205,-783r0,255r15,0v120,-110,180,-205,180,-285r0,-45v-106,2,-204,39,-195,75xm235,-303r0,240r30,30v307,17,470,-75,615,-315r0,-75v-37,-80,-122,-120,-255,-120v-143,0,-273,80,-390,240","w":1069},"C":{"d":"561,-1115v40,10,60,30,60,60v-8,36,-78,86,-210,150v-167,203,-236,334,-225,570v0,190,85,285,255,285v183,0,313,-65,390,-195r75,0r30,30r0,30v-56,152,-211,242,-465,270v-199,0,-334,-95,-405,-285r-30,-210v0,-233,135,-458,405,-675","w":973},"D":{"d":"450,-930v280,24,420,139,420,345v0,220,-160,405,-480,555v-70,0,-115,10,-135,30r-45,0v-41,0,-96,-220,-165,-660v-15,0,-30,-50,-45,-150v21,-70,171,-110,450,-120xm180,-720v0,339,102,514,135,540r30,0v255,-105,379,-258,375,-495v-59,-90,-144,-135,-255,-135v-190,12,-285,42,-285,90","w":889},"E":{"d":"557,-939v57,19,79,21,75,60v0,37,-145,97,-435,180r0,135v7,8,18,12,15,30r240,-30v120,7,180,22,180,45v0,27,-140,77,-420,150v-2,171,27,285,90,285v126,0,249,-43,450,-135r60,0r45,45r0,15v0,71,-90,121,-270,150v-87,37,-217,67,-390,90v-110,0,-165,-285,-165,-855v0,-75,175,-130,525,-165","w":889},"F":{"d":"750,-1109v50,14,75,49,75,105v0,31,-150,71,-450,120r-30,30v40,240,70,360,90,360r450,-120r18,133v-147,41,-298,97,-453,167v14,210,29,315,45,315v-30,56,-31,80,-90,75v-43,0,-83,-120,-120,-360v-62,1,-127,17,-120,30v-41,-14,-71,-39,-90,-75r0,-30v0,-30,60,-55,180,-75v7,-8,18,-12,15,-30v-43,-217,-78,-337,-105,-360r-75,30v-82,-33,-96,-30,-90,-105v0,-25,250,-95,750,-210","w":865},"G":{"d":"465,-1050r75,30r0,45v-250,237,-375,437,-375,600r0,150v0,50,85,75,255,75v200,-53,300,-158,300,-315r-15,-15v-42,21,-140,31,-255,30r-15,15v-110,-15,-165,-40,-165,-75r0,-45r45,-45v181,2,424,6,510,-60v65,0,94,36,90,105v-31,33,-71,138,-120,315v-120,160,-275,240,-465,240v-220,-26,-330,-136,-330,-330v0,-200,125,-430,375,-690","w":945},"H":{"d":"517,-973v25,-54,24,-64,75,-60v50,0,100,165,150,495v106,21,129,9,120,90v-29,50,-59,75,-90,75v-1,99,13,185,45,270v-20,63,-45,98,-75,105r-30,0v-45,0,-75,-115,-90,-345v-147,-2,-264,18,-285,60r30,300v-10,90,-30,135,-60,135r-30,0v-47,0,-77,-140,-90,-420r-150,15r-45,-75r0,-30v11,-47,83,-64,165,-60v-7,-148,-32,-278,-45,-420v20,-50,50,-75,90,-75v40,0,80,155,120,465v84,2,154,-18,270,-60","w":869},"I":{"d":"45,-930r45,0v60,0,105,260,135,780r15,75v-30,56,-31,80,-90,75v-58,0,-108,-300,-150,-900","w":276},"J":{"d":"570,-1290v90,0,140,220,150,660r0,120v-40,340,-125,510,-255,510v-74,0,-229,-130,-465,-390r0,-75r60,-45v41,0,81,55,120,165v136,130,231,195,285,195v98,-75,129,-231,120,-420v-20,-440,-45,-660,-75,-660v7,-30,27,-50,60,-60","w":741},"K":{"d":"538,-1111v17,0,37,30,60,90v0,40,-120,275,-360,705r0,15v0,40,60,75,180,75v341,0,510,-45,510,-75v27,0,52,25,75,75v0,70,-60,112,-180,128v-120,14,-257,43,-405,22r-210,-30v-13,140,-38,210,-75,210r-30,0v-33,0,-77,-49,-75,-150r15,-675r-15,-150v0,-60,35,-90,105,-90v19,0,49,35,90,105r-30,255r30,0v65,-67,140,-232,225,-495r15,-15r75,0","w":929},"L":{"d":"75,-1245v80,0,120,125,120,375v62,460,102,690,120,690r90,30r270,-30r45,60r0,45v0,50,-115,75,-345,75v-170,0,-255,-110,-255,-330v-40,-385,-80,-665,-120,-840v0,-40,25,-60,75,-60r0,-15","w":749},"M":{"d":"1050,-1320v89,0,144,280,165,840r-15,45r30,345r-60,75v-45,0,-85,-35,-120,-105r0,-30r15,0r-30,-675v-8,-7,-12,-18,-30,-15v-125,450,-250,675,-375,675v-120,-75,-180,-170,-180,-285r-30,0v-68,300,-163,450,-285,450r-45,0v-17,0,-47,-35,-90,-105v0,-50,50,-75,150,-75v110,-115,165,-300,165,-555r-15,-90v32,-67,33,-94,75,-90v100,0,185,180,255,540r30,0v33,-21,74,-88,122,-203v49,-115,108,-292,178,-532v7,-140,37,-210,90,-210","w":1270},"N":{"d":"595,-999v12,-76,15,-96,75,-90v155,0,265,245,330,735v-22,230,-97,345,-225,345v-114,0,-264,-100,-450,-300r-15,0r0,15r105,450r-45,60r-60,0v-45,0,-120,-240,-225,-720r-45,-165v0,-90,35,-135,105,-135v31,0,106,105,225,315v167,220,297,330,390,330v63,0,103,-50,120,-150v9,-273,-35,-489,-165,-630v-38,7,-72,18,-120,15r0,-75","w":1029},"O":{"d":"246,-941v29,23,119,48,270,75v170,93,255,218,255,375v-81,360,-186,540,-315,540r-75,15v-163,0,-278,-180,-345,-540v22,-310,92,-465,210,-465xm186,-506v33,280,103,420,210,420r45,0v71,0,136,-125,195,-375v5,-200,-95,-300,-270,-300v-120,0,-180,85,-180,255","w":793},"P":{"d":"555,-1095v230,0,345,85,345,255v0,140,-105,285,-315,435r-225,60r15,315r-45,30r-30,0v-70,0,-105,-290,-105,-870r-15,0r-120,75r-45,-45r-15,0v23,-123,208,-208,555,-255xm465,-960v-88,5,-127,7,-120,75r15,405v276,-49,410,-156,405,-360v0,-55,-30,-95,-90,-120r-210,0","w":909},"Q":{"d":"360,-1080r90,90r90,-15v165,0,265,120,300,360r-75,315r240,180v0,27,-25,52,-75,75v-76,-22,-151,-67,-225,-135v-130,130,-221,188,-270,195r-105,15v-220,-67,-330,-242,-330,-525v0,-220,105,-405,315,-555r45,0xm270,-735r-45,-45v-52,0,-82,105,-90,315v3,236,67,351,225,345v140,-48,210,-98,210,-150r0,-15r-225,-150r0,-30r60,-45r255,90v7,-68,32,-118,45,-180r0,-105v0,-110,-40,-165,-120,-165r-90,0v-120,30,-180,75,-180,135r-45,0","w":993},"R":{"d":"644,-943v75,17,111,82,109,195v-35,85,-108,201,-220,349v145,95,294,161,447,197r27,83v-9,38,-61,62,-156,71v-366,-167,-571,-277,-616,-328r-29,-7v-24,201,-28,329,-12,382v-54,84,-62,82,-138,61v-51,-12,-44,-287,23,-826v41,-79,54,-104,112,-82r67,108v131,-129,223,-195,277,-198xm526,-832v-151,59,-245,175,-282,350v179,-19,286,-106,323,-263r17,-73","w":949},"S":{"d":"585,-1080v74,0,124,35,150,105v-17,50,-42,75,-75,75r-180,-15v-210,59,-315,134,-315,225v0,33,165,68,495,105v90,64,135,139,135,225v-66,240,-186,360,-360,360r-165,0v-140,0,-210,-40,-210,-120v0,-26,30,-56,90,-90r120,60v187,11,265,-22,360,-165r0,-90v0,-40,-155,-70,-465,-90v-110,-50,-165,-120,-165,-210v0,-80,105,-185,315,-315","w":817},"T":{"d":"615,-1245r120,90r390,-30r30,45v1,46,1,127,-30,120v-260,0,-390,20,-390,60r30,810v0,47,-25,97,-75,150v-62,1,-99,8,-105,-60r-15,-885r-30,0r-405,30v-71,5,-101,-15,-135,-75v0,-60,120,-90,360,-90v130,0,195,-35,195,-105","w":989},"U":{"d":"705,-1200v80,0,120,215,120,645r75,405r-30,90r-75,0v-70,-24,-105,-129,-105,-315r-15,0v-132,234,-246,375,-345,375v-220,0,-330,-325,-330,-975v10,-40,40,-60,90,-60v82,18,106,146,75,240v16,430,66,645,150,645v88,-53,168,-158,240,-315v22,-3,52,-93,90,-270r-15,-420","w":913},"V":{"d":"0,-1050v-7,-66,40,-75,105,-75v43,23,118,188,225,495v73,178,128,283,165,315v97,-298,157,-548,180,-750r60,-45v85,24,112,24,105,90v-133,610,-223,945,-270,1005r-30,0r0,15v-80,0,-200,-215,-360,-645v-120,-240,-180,-375,-180,-405","w":869},"W":{"d":"1065,-1470v30,0,60,20,90,60v-26,890,-86,1335,-180,1335r-30,0v-90,0,-190,-190,-300,-570r-105,-210v-104,570,-194,855,-270,855v-103,0,-168,-145,-195,-435v-50,-293,-75,-508,-75,-645r90,-30v70,0,105,175,105,525v0,172,52,255,75,255r75,-270v36,-390,76,-585,120,-585r15,-15v111,0,241,250,390,750v20,0,30,25,30,75r30,0r89,-1075v-19,-13,-4,-20,46,-20xm1027,-779r15,0r0,30r-15,0r0,-30","w":1181},"X":{"d":"676,-1465v50,16,75,46,75,90v-93,119,-188,454,-285,1005r0,60v0,52,75,102,225,150r45,0v77,-48,132,-138,165,-270v32,-3,44,8,45,45v0,203,-95,328,-285,375r-180,-90r-45,0v-33,310,-73,465,-120,465v-44,0,-79,-25,-105,-75v50,-235,75,-430,75,-585v-46,-20,-136,-180,-270,-480v33,-89,35,-95,120,-90v40,11,90,121,150,330v21,9,30,30,60,30v93,-640,203,-960,330,-960","w":981},"Y":{"d":"824,-1259r45,0r45,45r0,60r-174,198v-214,180,-321,389,-321,627r105,450v0,40,-25,60,-75,60r0,15v-77,0,-101,-108,-135,-315v-82,-503,-191,-797,-330,-945v0,-44,30,-74,90,-90v91,32,176,187,255,465r15,0v283,-366,443,-556,480,-570","w":701},"Z":{"d":"540,-1050v45,0,85,35,120,105v0,61,-130,301,-390,720r570,-75v40,13,60,58,60,135r-45,45v-218,-5,-338,32,-765,120v-69,-31,-81,-41,-75,-120v300,-443,450,-698,450,-765r0,-15r-375,45v-41,-14,-71,-39,-90,-75v-4,-73,45,-86,120,-90","w":897},"[":{"d":"657,-1316v30,0,60,30,90,90v0,19,-25,49,-75,90r-75,-15r-195,0v-90,0,-135,135,-135,405r0,540r-15,210v0,80,25,120,75,120v250,23,375,58,375,105v3,76,-25,122,-90,120r-315,-45v-122,6,-179,-3,-225,-105v20,-45,30,-110,30,-195r0,-465v0,-513,50,-793,150,-840r105,15","w":758},"\\":{"d":"17,-996v31,-26,158,159,382,555r302,453r-7,20r-81,39v-36,17,-258,-327,-665,-1034","w":569},"]":{"d":"143,-1264v93,30,228,50,405,60r0,-15v45,17,80,47,105,90r15,225r-15,270r15,660v0,52,-25,92,-75,120v-179,-5,-257,20,-495,90v-60,0,-90,-35,-90,-105v0,-40,82,-52,240,-75v162,-23,240,-81,240,-135r0,-345v10,-420,-20,-630,-90,-630v-220,0,-330,-45,-330,-135v-2,-43,25,-48,75,-75","w":758},"^":{"d":"1246,-1131v270,0,405,95,405,285v0,172,-195,372,-585,600v-70,70,-108,115,-105,135r15,105v-65,100,-135,150,-210,150r-60,-90r30,-165v-29,-85,-204,-200,-525,-345v-130,-154,-195,-254,-195,-300v78,-210,203,-315,375,-315v130,0,265,70,405,210v162,-160,272,-240,330,-240xm796,-591r-195,-195v-95,-78,-153,-96,-285,-90v-40,20,-70,50,-90,90v0,117,160,252,480,405r120,105v440,-273,660,-468,660,-585r0,-30v-27,-74,-132,-79,-240,-75v-135,0,-250,110,-345,330","w":1674},"_":{"d":"816,-180v108,2,158,35,153,120v-24,57,-204,44,-306,45r-484,15v-126,-18,-184,-42,-179,-120v30,-61,224,-42,332,-45","w":1024},"`":{"w":1024},"a":{"d":"422,-790v120,59,180,129,180,210r15,45r-30,150v0,119,25,254,75,405v-24,61,-29,63,-90,60v-33,-17,-68,-82,-105,-195v-123,100,-218,150,-285,150v-76,0,-150,-68,-150,-210v0,-248,110,-448,330,-600xm407,-625v-161,118,-233,268,-225,495r90,0v110,-77,165,-147,165,-210r0,-285r-30,0","w":689},"b":{"d":"109,-865v50,0,85,140,105,420r30,0v67,-81,149,-222,255,-240r60,-30v121,-2,193,91,195,255v-38,320,-163,480,-375,480v-190,-18,-285,-63,-285,-135r-90,-660v0,-60,35,-90,105,-90xm289,-175r0,105r30,0v180,-90,270,-215,270,-375v-7,-70,-17,-105,-30,-105v-123,0,-213,125,-270,375","w":777},"c":{"d":"330,-900r45,0v36,19,61,49,75,90v-3,27,-58,82,-165,165v-98,154,-112,197,-105,375v0,70,45,105,135,105r120,-15v0,20,15,30,45,30r0,45v-50,70,-120,105,-210,105v-185,2,-274,-119,-270,-345v0,-214,110,-399,330,-555","w":529},"d":{"d":"564,-1206v80,0,120,120,120,360v40,154,60,349,60,585v0,230,-25,345,-75,345v-60,-21,-90,-61,-90,-120r15,-450r-15,-75v-216,-3,-350,76,-405,240r0,120v0,80,35,120,105,120v65,0,145,-60,240,-180r45,-15r0,15v-66,200,-166,300,-300,300v-125,0,-240,-87,-240,-270v0,-217,140,-377,420,-480r120,30r-45,-435r0,-45","w":789},"e":{"d":"361,-869v170,35,255,120,255,255r15,90v0,130,-50,195,-150,195r-270,30v-5,128,79,186,255,225v70,0,119,-21,180,-30r0,30v-69,90,-139,135,-210,135v-151,0,-281,-110,-390,-330r-30,-150v0,-153,105,-303,315,-450r30,0xm181,-449r75,0v170,0,255,-20,255,-60v-3,-109,24,-237,-75,-255v-170,86,-255,191,-255,315","w":677},"f":{"d":"630,-1185v82,0,137,35,165,105v3,60,1,65,-60,90r-135,-15v-110,51,-165,131,-165,240r15,45v178,-20,283,-40,315,-60v40,10,60,45,60,105v-42,37,-162,82,-360,135v-7,8,-18,12,-15,30r90,450v-11,49,-56,64,-120,60v-37,0,-82,-155,-135,-465r-15,-15r-180,60r-15,0v-50,-30,-75,-65,-75,-105v0,-40,85,-80,255,-120r0,-75v43,-310,168,-465,375,-465","w":701},"g":{"d":"532,-752v90,0,135,225,135,675v8,336,-94,559,-315,645v-150,11,-202,-58,-255,-225r60,-75v23,49,68,99,135,150r30,0v85,0,150,-105,195,-315r-15,-75r0,-180r-15,0v-85,100,-190,150,-315,150v-110,0,-170,-90,-180,-270v0,-125,120,-265,360,-420xm427,-527v-175,87,-259,181,-255,330r45,45r15,0v87,0,167,-95,240,-285v-10,-60,-25,-90,-45,-90","w":705},"h":{"d":"78,-1061v70,0,105,70,105,210r30,390r15,0v206,-341,401,-300,480,165r-3,249v0,100,-35,150,-105,150v-21,-18,-50,-196,-87,-534r-75,-90v-84,0,-149,200,-195,600r-60,45r-30,0v-42,0,-67,-100,-75,-300v-51,-327,-76,-558,-75,-750r-15,-15v0,-37,30,-77,90,-120","w":741},"i":{"d":"51,-853v-9,-82,24,-126,105,-120r60,60r0,45v-19,36,-49,61,-90,75v-45,-19,-73,-39,-75,-60xm51,-493v1,-106,42,-155,135,-150v90,29,52,237,60,360v15,110,40,165,75,165r105,0r0,45v-23,37,-63,72,-120,105r-30,0v-103,0,-173,-110,-210,-330","w":429},"j":{"d":"40,-811v31,-69,41,-81,120,-75r45,45r0,60r-75,75v-60,-15,-90,-50,-90,-105xm190,-586r30,0v59,0,150,243,150,735v0,241,-136,360,-330,360v-107,0,-187,-55,-240,-165r0,-30r45,-45r120,90r105,0v94,-32,138,-99,135,-210v0,-177,-30,-387,-90,-630v20,-63,45,-98,75,-105","w":400},"k":{"d":"75,-975r45,0v60,0,90,140,90,420r15,0v101,-155,206,-270,315,-345v62,31,81,35,75,105v-150,160,-225,265,-225,315r0,45v35,78,107,79,210,75r150,-45v7,8,15,12,15,30v0,100,-84,167,-240,180v-64,0,-164,-40,-300,-120r15,210v0,70,-35,105,-105,105v-59,0,-94,-255,-105,-765r-15,-90r-15,0v0,-50,25,-90,75,-120","w":729},"l":{"d":"105,-1365v60,0,90,120,90,360r0,690r15,150r30,0r150,-75r0,60v-77,120,-157,180,-240,180v-48,12,-95,-141,-105,-330r15,-165v-14,-423,-34,-673,-60,-750v0,-53,35,-93,105,-120","w":392},"m":{"d":"791,-730v112,20,183,231,214,633r0,30v-26,80,-71,120,-135,120r-30,-90r0,-90v-7,-300,-37,-450,-90,-450v-155,93,-215,288,-180,585r-75,45v-48,0,-57,-36,-60,-90v0,-305,-30,-475,-90,-510r-30,0v-98,127,-128,322,-90,585v-32,44,-64,63,-120,60v-5,-30,-22,-293,-52,-788v6,-30,23,-52,52,-67v60,23,90,58,90,105r45,0v0,-32,35,-67,105,-105r45,0v56,39,106,104,150,195v20,0,55,-40,105,-120","w":1017},"n":{"d":"73,-725r45,0v27,0,52,65,75,195r15,0v82,-100,152,-150,210,-150v111,0,196,155,255,465v-17,130,-42,195,-75,195r-30,0v-51,-271,-111,-431,-180,-480r-15,0v-70,0,-115,175,-135,525r-60,30v-50,-17,-75,-42,-75,-75v0,-123,-25,-348,-75,-675","w":705},"o":{"d":"257,-708v149,-3,253,147,285,420v0,143,-80,243,-240,300v-184,9,-268,-83,-270,-285v33,-270,103,-415,210,-435r15,0xm272,-588v-70,87,-105,197,-105,330v0,126,20,144,120,135v99,-70,140,-108,120,-225v-28,-162,-85,-240,-135,-240","w":569},"p":{"d":"335,-658v212,2,339,84,360,270v0,165,-140,305,-420,420r-45,15r0,60v11,196,-14,294,-74,294v-50,0,-80,-133,-91,-399v-25,0,-40,-145,-45,-435r45,-30r45,0v35,0,65,125,90,375v125,0,240,-80,345,-240r0,-105v-43,-70,-128,-105,-255,-105r-282,95r0,-30v84,-123,193,-185,327,-185","w":721},"q":{"d":"470,-575v101,0,176,35,225,105r0,135v-35,600,-70,900,-105,900r-60,0r-75,-75r60,-600r-30,0v-101,90,-201,135,-300,135v-110,-38,-165,-118,-165,-240v0,-209,150,-329,450,-360xm485,-410v-190,-13,-292,62,-300,255v137,7,205,-56,300,-195r0,-60","w":733},"r":{"d":"534,-949v77,0,127,55,150,165v-15,90,-60,220,-135,390v163,60,323,90,480,90r45,75v0,39,-45,74,-135,105v-395,-80,-620,-140,-675,-180r-30,0v23,201,48,326,75,375v-33,89,-35,95,-120,90v-53,0,-108,-270,-165,-810v24,-85,24,-112,90,-105r90,90v98,-155,173,-240,225,-255xm444,-814v-133,93,-198,222,-195,405v194,-72,270,-184,255,-405r-60,0","w":973},"s":{"d":"413,-866v120,35,145,32,135,135v-201,-15,-326,55,-375,210v0,60,80,130,240,210v50,61,75,106,75,135v-53,160,-163,240,-330,240v-63,0,-108,-25,-135,-75v35,-43,77,-61,127,-55v49,5,97,-21,143,-80r15,-45v-200,-119,-300,-234,-300,-345r0,-60v135,-180,270,-270,405,-270","w":581},"t":{"d":"240,-1215v26,0,56,30,90,90v-25,101,-32,287,-30,450v47,2,80,-10,120,-15r45,15r0,60r-165,150r0,225v0,54,20,89,60,105r197,-76v7,27,7,63,28,76r0,15v-87,80,-187,120,-300,120v-120,0,-168,-146,-144,-438v-99,62,-146,53,-141,-27r0,-45r149,-74r-8,-173v24,-293,37,-440,39,-443","w":561},"u":{"d":"601,-800v80,0,120,200,120,600r15,0v-7,8,-18,12,-15,30r52,121v-10,42,-35,77,-75,105v-79,0,-126,-110,-142,-331r0,-45r-30,0v-105,230,-210,345,-315,345v-120,0,-180,-195,-180,-585r-15,-75v0,-43,35,-83,105,-120v41,14,71,39,90,75r0,300r30,210r30,0v135,-137,240,-291,240,-465v0,-110,30,-165,90,-165","w":801},"v":{"d":"540,-840v30,0,45,45,45,135v-50,133,-105,353,-165,660r-60,45r-30,0v-64,0,-174,-250,-330,-750v6,-50,36,-75,90,-75v33,0,98,165,195,495r45,45v50,-126,100,-311,150,-555r60,0","w":605},"w":{"d":"825,-1065v70,0,105,50,105,150r0,90v-41,540,-106,810,-195,810r-45,0v-37,0,-107,-135,-210,-405r-15,-15v-1,-37,-13,-48,-45,-45v-75,301,-145,461,-210,480r-75,0v-68,-34,-113,-274,-135,-720v-1,-55,39,-78,105,-75v73,35,79,97,75,195v0,160,15,240,45,240r135,-420r60,-15v62,0,152,155,270,465r15,0v64,-216,62,-385,60,-630r15,-75r30,0r0,30r15,0r0,-60","w":957},"x":{"d":"462,-940v56,30,80,31,75,90v-130,259,-195,439,-195,540v39,110,74,165,105,165r105,0v6,108,-57,153,-180,150r-75,-60r-15,0v-25,0,-55,115,-90,345r-45,30v-75,6,-71,-8,-105,-90r105,-555r-135,-390v13,-50,28,-75,45,-75r75,0v25,0,55,55,90,165r30,0v69,-210,139,-315,210,-315","w":601},"y":{"d":"489,-791r30,0r60,60r0,660r15,15r-15,45v0,324,-80,534,-240,630r-135,30v-110,-67,-165,-152,-165,-255r150,105v116,5,175,-73,210,-240v13,-64,16,-124,15,-195v0,-29,-65,-124,-195,-285v-73,-105,-138,-235,-195,-390v20,-50,50,-75,90,-75v37,0,97,100,180,300r90,150r45,0r0,-90r-15,-360v20,-63,45,-98,75,-105","w":625},"z":{"d":"195,-960v230,0,345,55,345,165v0,101,-90,286,-270,555r0,45v123,-6,232,-39,375,-90v89,39,95,34,90,120v0,42,-205,97,-615,165v-80,-13,-120,-48,-120,-105v230,-327,345,-537,345,-630v2,-27,-20,-30,-30,-45r-135,0v-96,-1,-140,-37,-135,-120v11,-40,61,-60,150,-60","w":727},"{":{"d":"767,-1416r105,0v-50,175,-75,335,-75,480r105,120r15,45v0,60,-60,90,-180,90r-135,60r0,30v0,17,65,52,195,105r15,75v-130,127,-195,257,-195,390r-15,90r15,165r-45,30v-70,5,-124,-6,-120,-75r-15,0r15,-15v3,-43,-7,-73,-15,-105r105,-390r15,-75v-144,-66,-224,-126,-240,-180v0,-30,110,-105,330,-225v-6,-69,-17,-133,-15,-210v0,-270,45,-405,135,-405","w":1014},"|":{"w":1014},"}":{"d":"499,-1507v60,0,90,30,90,90v0,180,-45,400,-135,660v160,24,240,69,240,135r15,15r-150,165r0,15v140,176,202,310,195,510v-10,150,-35,225,-75,225r-90,0v-8,-7,-12,-18,-30,-15r30,-270v0,-161,-90,-291,-270,-390r-15,-45v5,-32,40,-77,105,-135r0,-15r-165,-75r-30,-45r0,-45v97,-99,167,-254,210,-465r-15,0r15,-15r0,-210r-15,-75r15,-15r75,0","w":859},"~":{"w":1014},"\u00d7":{"w":1014},"\u2013":{"w":1108},"\u2014":{"w":2048},"\u2018":{"d":"329,-978r-16,195r114,360v0,31,-23,39,-33,60v-127,0,-214,-145,-261,-435v-5,-139,30,-248,114,-240v50,19,77,39,82,60"},"\u2019":{"d":"274,-1049v77,-8,110,101,105,240v-43,290,-123,435,-240,435v-9,-21,-30,-30,-30,-60r105,-360r-15,-195v5,-21,30,-41,75,-60"},"\u201c":{"d":"316,-1091v27,0,52,25,75,75v-87,132,-76,190,-75,360r-15,0v-90,-30,-135,-100,-135,-210v0,-153,80,-225,150,-225xm691,-1061v50,14,75,49,75,105v-78,39,-128,79,-150,120r0,120r30,45v2,39,0,61,-45,60v-105,-43,-143,-94,-135,-210v45,-160,120,-240,225,-240","w":910},"\u201d":{"d":"538,-1099v120,57,180,147,180,270v0,70,-65,160,-195,270r-75,-60v70,-126,105,-206,105,-240v0,-33,-25,-83,-75,-150r0,-30xm208,-964v31,-62,35,-81,105,-75v33,0,63,60,90,180v-33,230,-98,345,-195,345r-45,-60r60,-210r0,-165","w":910},"\u2026":{"w":2048},"\u2122":{"w":1497}}});